/*!
 * The following copyright notice may not be removed under any circumstances.
 * 
 * Copyright:
 * Copyright (c) ShyFonts Type Foundry, 1999. All rights reserved.
 * 
 * Trademark:
 * SF Intellivised is a trademark of the ShyFonts Type Foundry.
 */
Cufon.registerFont({"w":1195,"face":{"font-family":"SF Intellivised","font-weight":400,"font-stretch":"normal","units-per-em":"2048","panose-1":"0 0 4 0 0 0 0 0 0 0","ascent":"1638","descent":"-410","bbox":"-169 -1724 1963 340.621","underline-thickness":"20","underline-position":"-123","unicode-range":"U+0020-U+00FF"},"glyphs":{" ":{"w":597},"!":{"d":"427,-1024r-52,563r-238,0r-35,-375v-5,-63,-9,-138,-12,-226v-3,-88,-5,-189,-5,-303r342,0r0,341xm256,-341v91,0,171,80,171,170v0,90,-80,171,-171,171v-90,0,-171,-81,-171,-171v0,-91,82,-170,171,-170","w":512},"\"":{"d":"683,-1365v91,0,170,79,170,170v0,93,-87,356,-170,342r0,-171v-90,4,-171,-81,-171,-171v0,-91,82,-170,171,-170xm256,-1365v91,0,171,80,171,170v0,95,-86,354,-171,342r0,-171v-90,4,-171,-81,-171,-171v0,-91,82,-170,171,-170","w":939},"#":{"d":"985,-1024r-29,171r-171,0r-31,170r171,0r-29,171r-171,0r-30,171r-171,0r31,-171r-171,0r-31,171r-170,0r30,-171r-170,0r29,-171r170,0r31,-170r-171,0r29,-171r171,0r31,-171r170,0r-30,171r170,0r31,-171r171,0r-31,171r171,0xm614,-853r-170,0r-31,170r171,0","w":1027},"$":{"d":"614,-1126v-39,-1,-69,39,-68,78v0,26,16,48,45,70v142,111,349,236,450,369v173,228,-4,618,-273,609r0,169r-341,0r0,-169r-342,0r0,-239r495,0v41,2,72,-42,70,-82v-2,-51,-78,-99,-128,-132r-206,-135v-130,-91,-231,-165,-231,-371v0,-207,143,-412,342,-406r0,-171r341,0r0,171r341,0r0,239r-495,0"},"%":{"d":"358,-1365v147,0,273,126,273,273v0,144,-126,273,-273,273v-144,0,-273,-129,-273,-273v0,-147,129,-273,273,-273xm1109,-1195r-853,1195r-171,-171r854,-1194xm836,-546v147,0,273,126,273,273v0,147,-126,273,-273,273v-144,0,-273,-126,-273,-273v0,-147,129,-273,273,-273xm440,-1092v0,-119,-27,-178,-82,-178v-55,0,-82,59,-82,178v0,118,27,177,82,177v55,0,82,-59,82,-177xm918,-273v0,-119,-27,-178,-82,-178v-55,0,-82,59,-82,178v0,118,27,177,82,177v55,0,82,-59,82,-177"},"&":{"d":"563,-964v0,97,102,162,205,162r768,0r0,239r-171,0r0,563r-597,0v-173,0,-318,-25,-437,-75v-164,-69,-246,-177,-246,-326v0,-122,54,-216,162,-282v-108,-66,-162,-160,-162,-281v0,-148,82,-257,246,-326v119,-50,264,-75,437,-75r597,0r0,239r-597,0v-99,-2,-205,65,-205,162xm563,-401v0,95,106,162,205,162r171,0r0,-324r-171,0v-103,-2,-205,65,-205,162","w":1621},"'":{"d":"256,-1365v91,0,171,80,171,170v0,95,-86,354,-171,342r0,-171v-90,4,-171,-81,-171,-171v0,-91,82,-170,171,-170","w":512},"(":{"d":"410,-683v0,370,44,565,153,852r-256,0v-138,-244,-222,-471,-222,-852v0,-381,85,-608,222,-853r256,0v-108,292,-153,481,-153,853","w":649},")":{"d":"341,-1536v154,282,218,457,222,853v3,381,-84,609,-222,852r-256,0v108,-283,154,-492,154,-852v0,-374,-46,-560,-154,-853r256,0","w":649},"*":{"d":"1014,-652r-103,178r-259,-151r0,301r-205,0r0,-301r-259,151r-103,-178r260,-150r-260,-150r103,-178r259,150r0,-300r205,0r0,300r259,-150r103,178r-260,150","w":1099},"+":{"d":"802,-563r-239,0r0,239r-239,0r0,-239r-239,0r0,-239r239,0r0,-239r239,0r0,239r239,0r0,239","w":887},",":{"d":"256,-341v91,0,171,80,171,170v0,94,-87,352,-171,340r0,-169v-90,4,-171,-81,-171,-171v0,-91,82,-170,171,-170","w":512},"-":{"d":"802,-563r-717,0r0,-239r717,0r0,239","w":887},".":{"d":"256,-341v91,0,171,80,171,170v0,90,-80,171,-171,171v-90,0,-171,-81,-171,-171v0,-91,82,-170,171,-170","w":512},"\/":{"d":"905,-1427r-584,1603r-321,-116r584,-1603","w":905},"0":{"d":"725,-1365v365,0,683,318,683,682v0,365,-317,683,-683,683v-364,0,-682,-319,-682,-683v0,-365,318,-682,682,-682xm905,-406v31,-104,31,-449,0,-553v-33,-111,-91,-167,-180,-167v-88,0,-146,56,-179,167v-31,104,-31,450,0,553v33,111,91,167,179,167v89,0,147,-56,180,-167","w":1451},"1":{"d":"512,0r-427,0r0,-1365r427,0r0,1365","w":597},"2":{"d":"939,-1365v198,-6,341,200,341,406v0,371,-378,398,-633,527v-43,22,-103,69,-103,111r0,82r736,0r0,239r-1195,0r0,-393v0,-176,79,-301,238,-375r452,-210v70,-24,50,-148,-24,-148r-666,0r0,-239r854,0","w":1365},"3":{"d":"887,-964v0,-96,-104,-162,-204,-162r-598,0r0,-239r598,0v172,0,318,25,437,75v163,69,245,178,245,326v0,121,-54,215,-162,281v108,66,162,160,162,282v0,148,-82,257,-245,326v-119,50,-265,75,-437,75r-598,0r0,-239r598,0v97,1,204,-61,204,-162v0,-96,-104,-162,-204,-162r-256,0r0,-239r256,0v100,2,204,-64,204,-162","w":1408},"4":{"d":"1280,0r-427,0r0,-341r-768,0r0,-1024r427,0r0,785r341,0r0,-785r427,0r0,1365","w":1365},"5":{"d":"751,-239v73,1,92,-116,24,-148r-452,-210v-159,-74,-238,-199,-238,-376r0,-392r1195,0r0,239r-736,0v0,83,-9,121,55,162v244,162,681,158,681,558v0,207,-144,406,-341,406r-854,0r0,-239r666,0","w":1365},"6":{"d":"768,-1126v-100,-3,-209,67,-205,162r0,77v35,-57,104,-86,205,-86v163,0,308,27,433,82v167,73,250,179,250,319r0,171v0,140,-85,244,-250,319v-235,107,-638,106,-870,7v-164,-70,-246,-177,-246,-326r0,-563v0,-148,83,-254,246,-326v233,-104,616,-68,949,-75r0,239r-512,0xm768,-239v100,0,205,-68,205,-162r0,-171v4,-94,-105,-162,-205,-162v-55,0,-205,41,-205,85r0,248v-4,94,105,162,205,162","w":1493},"7":{"d":"939,-1365v206,-3,343,134,341,338v0,71,-100,242,-300,515r-194,254r-207,258r-494,0v489,-679,734,-1028,734,-1048v0,-44,-24,-78,-68,-78r-666,0r0,-239r854,0","w":1323},"8":{"d":"1408,-401v0,149,-83,255,-246,326v-223,97,-651,98,-874,0v-162,-71,-245,-178,-245,-326v0,-122,54,-216,162,-282v-108,-66,-162,-160,-162,-281v0,-148,83,-255,245,-326v223,-98,651,-98,874,0v163,72,246,178,246,326v0,121,-54,215,-162,281v108,66,162,160,162,282xm725,-802v101,0,205,-64,205,-162v0,-95,-105,-162,-205,-162v-99,0,-204,67,-204,162v0,97,104,162,204,162xm725,-239v100,0,205,-68,205,-162v0,-97,-104,-162,-205,-162v-100,0,-204,66,-204,162v0,95,105,162,204,162","w":1451},"9":{"d":"725,-239v100,3,209,-68,205,-162r0,-77v-35,57,-103,85,-205,85v-163,0,-307,-26,-433,-81v-166,-72,-249,-179,-249,-320r0,-170v0,-139,83,-246,249,-319v379,-168,1116,-92,1116,319r0,563v0,149,-84,254,-246,326v-232,103,-617,68,-949,75r0,-239r512,0xm725,-631v51,0,205,-40,205,-86r0,-247v4,-95,-105,-162,-205,-162v-99,0,-204,67,-204,162r0,170v-4,94,105,163,204,163","w":1493},":":{"d":"256,-1024v90,0,171,81,171,171v0,91,-80,170,-171,170v-89,0,-171,-79,-171,-170v0,-91,81,-171,171,-171xm256,-341v91,0,171,80,171,170v0,90,-80,171,-171,171v-90,0,-171,-81,-171,-171v0,-91,82,-170,171,-170","w":512},";":{"d":"256,-1024v90,0,171,81,171,171v0,91,-80,170,-171,170v-89,0,-171,-79,-171,-170v0,-91,81,-171,171,-171xm256,-341v91,0,171,80,171,170v0,94,-87,352,-171,340r0,-169v-90,4,-171,-81,-171,-171v0,-91,82,-170,171,-170","w":512},"<":{"d":"768,-341r-341,0r-342,-342r342,-341r341,0r-341,341","w":853},"=":{"d":"802,-734r-717,0r0,-239r717,0r0,239xm802,-393r-717,0r0,-238r717,0r0,238","w":887},">":{"d":"768,-683r-341,342r-342,0r342,-342r-342,-341r342,0","w":853},"?":{"d":"717,-964v0,-97,-102,-162,-205,-162r-427,0r0,-239v309,3,651,-21,864,75v162,73,246,178,246,326v0,149,-82,256,-246,326v-138,59,-318,80,-522,75r0,102r-342,0r0,-341r427,0v103,2,205,-65,205,-162xm256,-341v91,0,171,80,171,170v0,90,-80,171,-171,171v-90,0,-171,-81,-171,-171v0,-91,82,-170,171,-170","w":1237},"@":{"d":"1434,-768r-785,0r0,-205r-214,0r0,205r-188,0r0,-307r188,0r0,-86r410,0r0,-204r401,0r0,85r-205,0r0,111r205,0r0,85r-205,0r0,197r393,0r0,119xm1638,-290r-204,0r0,111r-188,0r0,-188r188,0r0,-128r-785,0r0,205r-214,0r0,188r-188,0r0,211r-204,0r0,-288r204,0r0,-188r188,0r0,-213r214,0r0,-103r392,0r0,103r597,0r0,290","w":1724},"A":{"d":"1280,0r-461,0r-60,-171r-546,0r-59,171r-238,0r410,-1176v32,-101,138,-190,268,-189v122,0,239,86,273,182xm676,-410r-190,-541r-189,541r379,0"},"B":{"d":"1365,-401v0,148,-81,257,-245,326v-120,50,-266,75,-437,75r-598,0r0,-1365r598,0v171,0,317,25,437,75v164,69,245,178,245,326v0,121,-54,215,-162,281v108,66,162,160,162,282xm683,-802v100,2,204,-64,204,-162v0,-96,-104,-162,-204,-162r-120,0r0,324r120,0xm683,-239v100,2,204,-64,204,-162v0,-96,-104,-162,-204,-162r-120,0r0,324r120,0","w":1408},"C":{"d":"43,-683v0,-365,318,-682,682,-682r512,0r0,239r-512,0v-89,0,-146,57,-179,169v-31,104,-31,445,0,549v33,112,90,169,179,169r512,0r0,239r-512,0v-364,11,-682,-319,-682,-683","w":1323},"D":{"d":"683,-1365v364,-10,682,318,682,682v0,365,-317,683,-682,683r-598,0r0,-1365r598,0xm862,-406v32,-108,32,-445,0,-553v-33,-111,-91,-167,-179,-167r-120,0r0,887r120,0v88,0,146,-56,179,-167","w":1408},"E":{"d":"85,-1195v-4,-105,139,-170,256,-170r768,0r0,239r-529,0v-45,0,-68,17,-68,51r0,273r597,0r0,239r-597,0r0,273v0,34,23,51,68,51r529,0r0,239r-768,0v-118,3,-256,-64,-256,-171r0,-1024"},"F":{"d":"85,-1195v-4,-105,139,-170,256,-170r768,0r0,239r-529,0v-45,0,-68,17,-68,51r0,273r597,0r0,239r-597,0r0,563r-427,0r0,-1195","w":1152},"G":{"d":"1152,-802v116,-4,256,65,256,171r0,631r-683,0v-364,11,-682,-319,-682,-683v0,-365,318,-682,682,-682r512,0r0,239r-512,0v-88,0,-146,56,-179,167v-32,109,-32,445,0,553v33,111,91,167,179,167r256,0r0,-273v0,-34,-23,-51,-68,-51r-188,0r0,-239r427,0","w":1493},"H":{"d":"1280,0r-427,0r0,-563r-341,0r0,563r-427,0r0,-1365r427,0r0,563r341,0r0,-563r427,0r0,1365","w":1365},"I":{"d":"512,0r-427,0r0,-1365r427,0r0,1365","w":597},"J":{"d":"512,49v4,148,-112,291,-256,291r-425,0r0,-239r186,0v45,0,68,-17,68,-52r0,-1414r427,0r0,1414","w":597},"K":{"d":"1451,0r-528,0r-360,-468r0,468r-478,0r0,-1365r478,0r0,563r393,-563r409,0r-455,664","w":1408},"L":{"d":"341,0v-118,3,-256,-64,-256,-171r0,-1194r427,0r0,1075v0,34,23,51,68,51r188,0r0,239r-427,0","w":768},"M":{"d":"1219,-1367v125,0,232,114,232,239r0,1128r-273,0r0,-531r-192,360v-113,228,-316,225,-436,0r-192,-360r0,531r-273,0r0,-1128v-4,-125,105,-239,229,-239v94,0,165,49,212,147r242,505r242,-505v47,-98,116,-147,209,-147","w":1536},"N":{"d":"85,-1128v-5,-132,125,-237,255,-237v83,0,145,25,186,76r481,608r0,-684r273,0r0,1128v4,131,-125,237,-256,237v-81,0,-143,-26,-184,-77r-482,-607r0,684r-273,0r0,-1128","w":1365},"O":{"d":"725,-1365v365,0,683,318,683,682v0,365,-317,683,-683,683v-364,0,-682,-319,-682,-683v0,-365,318,-682,682,-682xm905,-406v31,-104,31,-449,0,-553v-33,-111,-91,-167,-180,-167v-88,0,-146,56,-179,167v-31,104,-31,450,0,553v33,111,91,167,179,167v89,0,147,-56,180,-167","w":1451},"P":{"d":"1365,-853v0,163,-76,292,-228,387v-163,103,-335,134,-574,125r0,341r-478,0r0,-1365r598,0v172,0,323,41,454,124v152,96,228,225,228,388xm683,-580v124,4,204,-139,204,-273v0,-136,-80,-276,-204,-273r-120,0r0,546r120,0","w":1408},"Q":{"d":"725,-1365v365,0,683,318,683,682v0,176,-60,330,-179,461r222,222r-250,247r-278,-276v-466,140,-880,-227,-880,-654v0,-365,318,-682,682,-682xm905,-408v31,-105,32,-446,0,-553v-33,-110,-91,-165,-180,-165v-88,0,-146,56,-179,167v-31,104,-31,450,0,553v33,111,91,167,179,167v90,0,147,-57,180,-169","w":1451},"R":{"d":"1365,-964v0,211,-177,326,-377,367r505,597r-537,0r-393,-468r0,468r-478,0r0,-1365r598,0v171,0,317,25,437,75v164,69,245,178,245,326xm683,-802v100,2,204,-64,204,-162v0,-96,-104,-162,-204,-162r-120,0r0,324r120,0","w":1451},"S":{"d":"614,-1126v-39,-1,-69,39,-68,78v0,26,16,48,45,70v142,111,349,236,450,369v173,228,-3,609,-273,609r-683,0r0,-239r495,0v41,2,71,-42,70,-82v0,-24,-15,-54,-54,-80r-148,-98r-204,-141v-106,-79,-159,-185,-159,-319v0,-207,143,-406,342,-406r682,0r0,239r-495,0"},"T":{"d":"1195,-1126r-316,0v-45,0,-68,17,-68,51r0,1075r-427,0r0,-1075v0,-34,-23,-51,-68,-51r-316,0r0,-239r1195,0r0,239"},"U":{"d":"768,0v-365,0,-683,-318,-683,-683r0,-682r478,0r0,682v0,123,9,215,26,277v31,111,91,167,179,167v88,0,148,-56,179,-167v17,-62,26,-154,26,-277r0,-682r478,0r0,682v10,365,-317,683,-683,683","w":1536},"V":{"d":"1280,-1365r-411,1176v-32,102,-139,189,-268,189v-122,0,-239,-86,-273,-183r-412,-1182r459,0r333,950r333,-950r239,0"},"W":{"d":"1963,-1365r-412,1176v-32,101,-143,189,-268,189v-132,-1,-237,-79,-273,-183r-71,-206r-70,200v-65,184,-269,243,-435,138v-53,-33,-87,-79,-106,-132r-412,-1182r459,0r333,950r111,-315r-222,-635r461,0r333,950r333,-950r239,0","w":1877},"X":{"d":"1195,0r-478,0r-244,-466r-234,466r-239,0r350,-700r-350,-665r478,0r244,466r234,-466r239,0r-350,699"},"Y":{"d":"1067,-1365r-384,734r0,631r-427,0r0,-631r-382,-734r476,0r227,469r251,-469r239,0","w":939},"Z":{"d":"544,-321v0,45,25,82,70,82r495,0r0,239r-682,0v-270,9,-447,-381,-273,-609v100,-131,310,-259,450,-369v29,-22,45,-44,45,-70v1,-39,-30,-78,-69,-78r-495,0r0,-239r683,0v199,-6,341,198,341,406v0,133,-48,246,-158,319r-147,98r-205,141v-37,29,-55,55,-55,80"},"[":{"d":"768,169r-683,0r0,-1705r683,0r0,239r-341,0r0,1229r341,0r0,237","w":853},"\\":{"d":"905,60r-321,116r-584,-1603r321,-116","w":905},"]":{"d":"768,169r-683,0r0,-237r342,0r0,-1229r-342,0r0,-239r683,0r0,1705","w":853},"^":{"d":"683,-1161r-171,0r-128,-136r-128,136r-171,0r171,-204r256,0","w":768},"_":{"d":"973,237r-1057,0r0,-237r1057,0r0,237","w":887},"`":{"d":"631,-1502r-34,51r-512,-34r0,-170","w":717},"a":{"d":"1024,0r-369,0r-47,-137r-437,0r-48,137r-190,0r328,-940v35,-126,216,-201,346,-111v41,28,71,61,86,106xm541,-328r-152,-433r-152,433r304,0","w":956},"b":{"d":"1092,-321v0,119,-66,204,-196,261v-204,89,-541,52,-828,60r0,-1092v287,8,623,-30,828,59v131,56,196,143,196,262v0,97,-43,172,-129,225v86,53,129,128,129,225xm546,-642v82,2,164,-52,164,-129v0,-78,-82,-130,-164,-130r-95,0r0,259r95,0xm546,-191v81,2,164,-53,164,-130v0,-77,-83,-130,-164,-130r-95,0r0,260r95,0","w":1118},"c":{"d":"26,-546v0,-292,255,-546,546,-546r409,0r0,191r-409,0v-109,0,-164,118,-164,355v0,237,55,355,164,355r409,0r0,191r-409,0v-293,8,-546,-253,-546,-546","w":1050},"d":{"d":"563,-1092v290,-9,546,256,546,546v0,291,-254,546,-546,546r-478,0r0,-1092r478,0xm727,-546v0,-237,-55,-355,-164,-355r-95,0r0,710r95,0v109,0,164,-118,164,-355","w":1135},"e":{"d":"68,-956v-3,-83,112,-136,205,-136r614,0r0,191r-423,0v-36,0,-54,14,-54,41r0,218r477,0r0,191r-477,0r0,219v0,27,18,41,54,41r423,0r0,191r-614,0v-94,3,-205,-55,-205,-137r0,-819","w":956},"f":{"d":"68,-956v-3,-84,112,-136,205,-136r614,0r0,191r-423,0v-36,0,-54,14,-54,41r0,218r477,0r0,191r-477,0r0,451r-342,0r0,-956","w":913},"g":{"d":"913,-642v93,-1,205,53,205,137r0,845r-341,0r0,-340r-205,0v-293,8,-546,-253,-546,-546v0,-292,255,-546,546,-546r409,0r0,191r-409,0v-109,0,-164,118,-164,355v0,97,7,170,20,220v24,90,72,135,144,135r205,0r0,-219v0,-27,-18,-41,-55,-41r-150,0r0,-191r341,0","w":1186},"h":{"d":"1024,0r-341,0r0,-451r-273,0r0,451r-342,0r0,-1092r342,0r0,450r273,0r0,-450r341,0r0,1092","w":1092},"i":{"d":"410,-870r-342,0r0,-222r342,0r0,222xm410,0r-342,0r0,-751r342,0r0,751","w":478},"j":{"d":"410,-870r-342,0r0,-222r342,0r0,222xm410,340r-342,0r0,-1091r342,0r0,1091","w":478},"k":{"d":"1161,0r-422,0r-288,-374r0,374r-383,0r0,-1092r383,0r0,450r314,-450r327,0r-365,531","w":1135},"l":{"d":"273,0v-94,2,-205,-52,-205,-137r0,-955r342,0r0,860v0,27,18,41,54,41r150,0r0,191r-341,0","w":640},"m":{"d":"975,-1094v101,0,186,90,186,191r0,903r-219,0r0,-425r-154,288v-94,183,-252,181,-348,0r-153,-288r0,425r-219,0r0,-903v-2,-98,82,-191,183,-191v76,0,131,40,169,118r194,404r195,-404v37,-79,92,-118,166,-118","w":1229},"n":{"d":"68,-903v-3,-105,100,-189,203,-189v67,0,116,20,149,61r386,487r0,-548r218,0r0,903v4,103,-101,189,-205,189v-65,0,-114,-20,-147,-61r-385,-487r0,548r-219,0r0,-903","w":1092},"o":{"d":"572,-1092v290,0,546,256,546,546v0,291,-254,546,-546,546v-293,0,-546,-253,-546,-546v0,-292,255,-546,546,-546xm715,-326v25,-86,26,-354,0,-440v-26,-89,-72,-135,-143,-135v-72,0,-118,45,-144,135v-25,88,-25,352,0,440v26,90,72,135,144,135v71,0,116,-46,143,-135","w":1143},"p":{"d":"546,-1092v269,-6,546,158,546,409v0,252,-277,416,-546,410r-95,0r0,273r-383,0r0,-1092r478,0xm546,-464v100,3,164,-111,164,-219v0,-108,-62,-221,-164,-218r-95,0r0,437r95,0","w":1118},"q":{"d":"572,-1092v290,0,546,256,546,546v0,141,-48,264,-143,369r177,177r-200,198r-222,-222v-373,114,-704,-179,-704,-522v0,-292,255,-546,546,-546xm715,-326v25,-86,26,-354,0,-440v-26,-89,-72,-135,-143,-135v-72,0,-118,45,-144,135v-25,88,-25,352,0,440v26,90,72,135,144,135v71,0,116,-46,143,-135","w":1152},"r":{"d":"1195,0r-430,0r-314,-374r0,374r-383,0r0,-1092v287,8,623,-30,828,59v131,56,196,143,196,262v0,151,-101,249,-302,293xm546,-642v82,2,164,-52,164,-129v0,-78,-82,-130,-164,-130r-95,0r0,259r95,0","w":1169},"s":{"d":"68,-768v0,-165,113,-324,273,-324r546,0r0,191r-395,0v-37,0,-55,21,-55,63v0,19,12,38,36,56v112,88,281,190,360,294v138,182,0,488,-219,488r-546,0r0,-191r396,0v38,0,57,-22,57,-65v0,-66,-112,-107,-163,-143r-163,-113v-85,-64,-127,-149,-127,-256","w":956},"t":{"d":"358,0v-91,1,-204,-50,-204,-137r0,-723v1,-63,-109,-35,-169,-41r0,-191r32,0r478,-273r0,273r205,0r0,191r-150,0v-37,0,-55,14,-55,41r0,628v0,27,18,41,55,41r150,0r0,191r-342,0","w":725},"u":{"d":"614,0v-293,0,-546,-253,-546,-546r0,-546r383,0r0,546v0,97,7,170,20,220v24,90,72,135,143,135v72,0,120,-45,144,-135v13,-50,20,-123,20,-220r0,-546r383,0r0,546v8,291,-254,546,-547,546","w":1229},"v":{"d":"1109,-1365r-414,1213v-35,126,-218,202,-347,111v-40,-28,-70,-62,-85,-106r-330,-945r367,0r267,761r351,-1034r191,0","w":964},"w":{"d":"1570,-1092r-329,940v-27,82,-111,151,-214,152v-124,2,-202,-77,-236,-196r-40,-115v-39,111,-67,181,-84,209v-64,108,-208,133,-319,61v-41,-27,-70,-62,-85,-106r-330,-945r367,0r267,761r88,-253r-177,-508r369,0r266,761r266,-761r191,0","w":1502},"x":{"d":"956,0r-383,0r-194,-372r-188,372r-191,0r280,-560r-280,-532r382,0r195,372r188,-372r191,0r-280,560","w":956},"y":{"d":"845,-1092r-307,587r0,505r-342,0r0,-505r-305,-587r380,0r181,375r202,-375r191,0","w":734},"z":{"d":"614,-1092v159,-6,273,160,273,324v0,107,-39,197,-126,256r-281,191v-30,23,-45,45,-45,65v0,43,19,65,57,65r395,0r0,191r-546,0v-217,7,-357,-306,-218,-488v78,-102,246,-213,360,-294v51,-36,46,-119,-19,-119r-396,0r0,-191r546,0","w":956},"{":{"d":"427,-683v90,-2,170,80,170,171r0,444r256,0r0,237r-256,0v-157,4,-341,-93,-341,-237r0,-376v2,-90,-80,-173,-171,-170r0,-137v91,3,171,-81,171,-171r0,-375v-5,-145,184,-239,341,-239r256,0r0,239r-256,0r0,444v3,91,-79,173,-170,170","w":939},"|":{"d":"427,169r-342,0r0,-1705r342,0r0,1705","w":512},"}":{"d":"683,-922v-3,89,79,175,170,171r0,137v-91,-3,-170,79,-170,170r0,376v5,144,-186,237,-342,237r-256,0r0,-237r256,0r0,-444v-3,-91,81,-174,171,-171v-89,3,-171,-79,-171,-170r0,-444r-256,0r0,-239r256,0v158,-3,342,94,342,239r0,375","w":939},"~":{"d":"290,-1365v56,0,149,85,205,85v84,0,152,-28,205,-85r0,170v-53,57,-122,86,-205,86v-57,0,-148,-86,-205,-86v-79,0,-148,29,-205,86r0,-171v56,-57,124,-85,205,-85","w":785},"\u201a":{"d":"256,-341v91,0,171,80,171,170v0,94,-87,352,-171,340r0,-169v-90,4,-171,-81,-171,-171v0,-91,82,-170,171,-170","w":512},"\u201e":{"d":"683,-341v91,0,170,79,170,170v0,93,-88,353,-170,340r0,-169v-90,4,-171,-81,-171,-171v0,-91,82,-170,171,-170xm256,-341v91,0,171,80,171,170v0,94,-87,352,-171,340r0,-169v-90,4,-171,-81,-171,-171v0,-91,82,-170,171,-170","w":939},"\u0085":{"d":"1109,-341v91,0,171,80,171,170v0,90,-80,171,-171,171v-91,0,-170,-82,-170,-171v0,-91,79,-170,170,-170xm683,-341v91,0,170,79,170,170v0,89,-79,171,-170,171v-90,0,-171,-81,-171,-171v0,-91,82,-170,171,-170xm256,-341v91,0,171,80,171,170v0,90,-80,171,-171,171v-90,0,-171,-81,-171,-171v0,-91,82,-170,171,-170","w":1365},"\u2026":{"d":"1109,-341v91,0,171,80,171,170v0,90,-80,171,-171,171v-91,0,-170,-82,-170,-171v0,-91,79,-170,170,-170xm683,-341v91,0,170,79,170,170v0,89,-79,171,-170,171v-90,0,-171,-81,-171,-171v0,-91,82,-170,171,-170xm256,-341v91,0,171,80,171,170v0,90,-80,171,-171,171v-90,0,-171,-81,-171,-171v0,-91,82,-170,171,-170","w":1365},"\u02c6":{"d":"683,-1451r-171,0r-128,-136r-128,136r-171,0r171,-204r256,0","w":768},"\u2030":{"d":"358,-1365v147,0,273,126,273,273v0,144,-126,273,-273,273v-144,0,-273,-129,-273,-273v0,-147,129,-273,273,-273xm1191,-546v147,0,273,126,273,273v0,147,-126,273,-273,273v-67,0,-126,-22,-177,-67v-51,45,-110,67,-178,67v-144,0,-273,-126,-273,-273v0,-147,129,-273,273,-273v67,0,127,22,178,66v51,-44,110,-66,177,-66xm1109,-1195r-853,1195r-171,-171r854,-1194xm1273,-273v0,-119,-27,-178,-82,-178v-55,0,-82,59,-82,178v0,118,27,177,82,177v55,0,82,-59,82,-177xm440,-1092v0,-119,-27,-178,-82,-178v-55,0,-82,59,-82,178v0,118,27,177,82,177v55,0,82,-59,82,-177xm918,-273v0,-119,-27,-178,-82,-178v-55,0,-82,59,-82,178v0,118,27,177,82,177v55,0,82,-59,82,-177","w":1507},"\u0152":{"d":"43,-683v0,-456,482,-832,952,-626v53,-37,117,-56,191,-56r597,0r0,239r-358,0v-45,0,-68,17,-68,51r0,273r426,0r0,239r-426,0r0,273v0,34,23,51,68,51r358,0r0,239r-597,0v-74,0,-138,-19,-191,-56v-470,206,-952,-171,-952,-627xm905,-406v31,-104,31,-449,0,-553v-33,-111,-91,-167,-180,-167v-88,0,-146,56,-179,167v-31,104,-31,450,0,553v33,111,91,167,179,167v89,0,147,-56,180,-167","w":1869},"\u2018":{"d":"256,-1195v90,-2,171,81,171,171v0,90,-80,171,-171,171v-90,0,-171,-81,-171,-171v0,-92,86,-354,171,-341r0,170","w":512},"\u2019":{"d":"256,-1365v91,0,171,80,171,170v0,95,-86,354,-171,342r0,-171v-90,4,-171,-81,-171,-171v0,-91,82,-170,171,-170","w":512},"\u201c":{"d":"683,-1195v90,-2,170,80,170,171v0,89,-79,171,-170,171v-90,0,-171,-81,-171,-171v0,-92,86,-354,171,-341r0,170xm256,-1195v90,-2,171,81,171,171v0,90,-80,171,-171,171v-90,0,-171,-81,-171,-171v0,-92,86,-354,171,-341r0,170","w":939},"\u201d":{"d":"683,-1365v91,0,170,79,170,170v0,93,-87,356,-170,342r0,-171v-90,4,-171,-81,-171,-171v0,-91,82,-170,171,-170xm256,-1365v91,0,171,80,171,170v0,95,-86,354,-171,342r0,-171v-90,4,-171,-81,-171,-171v0,-91,82,-170,171,-170","w":939},"\u2022":{"d":"469,-1109v229,0,427,197,427,426v0,231,-195,427,-427,427v-232,0,-426,-195,-426,-427v0,-230,197,-426,426,-426","w":939},"\u02dc":{"d":"290,-1707v57,0,148,86,205,86v83,0,152,-29,205,-86r0,171v-53,57,-121,85,-205,85v-56,0,-149,-85,-205,-85v-80,0,-148,28,-205,85r0,-170v56,-57,124,-86,205,-86","w":785},"\u2122":{"d":"937,-1365v53,0,87,36,87,88r0,424r-102,0r0,-200r-72,137v-41,84,-120,83,-164,0r-72,-137r0,200r-102,0r0,-424r-97,0v-17,0,-26,7,-26,21r0,403r-160,0r0,-403v0,-14,-9,-21,-26,-21r-118,0r0,-88r512,0v37,0,64,18,81,54r90,190r90,-190v17,-36,43,-54,79,-54","w":1109},"\u0153":{"d":"26,-546v0,-365,384,-665,761,-502v43,-29,94,-44,153,-44r495,0r0,191r-303,0v-37,0,-55,14,-55,41r0,218r358,0r0,191r-358,0r0,219v0,27,18,41,55,41r303,0r0,191r-495,0v-59,0,-110,-15,-153,-44v-377,162,-761,-136,-761,-502xm715,-326v25,-86,26,-354,0,-440v-26,-89,-72,-135,-143,-135v-72,0,-118,45,-144,135v-25,88,-25,352,0,440v26,90,72,135,144,135v71,0,116,-46,143,-135","w":1504},"\u0178":{"d":"640,-1690v64,0,119,56,119,120v0,64,-56,119,-119,119v-64,0,-119,-56,-119,-119v0,-65,55,-120,119,-120xm299,-1690v64,0,119,56,119,120v0,64,-56,119,-119,119v-65,0,-120,-55,-120,-119v0,-65,55,-120,120,-120xm1067,-1365r-384,734r0,631r-427,0r0,-631r-382,-734r476,0r227,469r251,-469r239,0","w":939},"\u00a0":{"w":597},"\u00a1":{"d":"256,-1024v90,0,171,81,171,171v0,91,-80,170,-171,170v-89,0,-171,-79,-171,-170v0,-91,81,-171,171,-171xm427,340r-342,0r0,-340r52,-563r238,0r35,375v5,63,9,138,12,226v3,88,5,188,5,302","w":512},"\u00a2":{"d":"68,-683v0,-250,174,-456,376,-518r0,-198r341,0r0,170r239,0r0,191r-410,0v-109,0,-163,118,-163,355v0,237,54,355,163,355r410,0r0,191r-239,0r0,169r-341,0r0,-196v-204,-61,-376,-269,-376,-519","w":1092},"\u00a5":{"d":"1067,-1365r-331,631r203,0r0,239r-256,0r0,85r256,0r0,239r-256,0r0,171r-427,0r0,-171r-256,0r0,-239r256,0r0,-85r-256,0r0,-239r203,0r-329,-631r476,0r227,469r251,-469r239,0","w":939},"\u00a8":{"d":"546,-1690v65,0,120,55,120,120v0,64,-56,119,-120,119v-64,0,-119,-56,-119,-119v0,-65,55,-120,119,-120xm205,-1690v64,0,119,56,119,120v0,64,-56,119,-119,119v-65,0,-120,-55,-120,-119v0,-65,55,-120,120,-120","w":751},"\u00a9":{"d":"563,-1041v278,0,521,241,521,520v0,280,-243,521,-521,521v-278,0,-520,-242,-520,-521v0,-279,242,-520,520,-520xm563,-119v215,0,401,-187,401,-402v0,-214,-186,-401,-401,-401v-214,0,-401,187,-401,401v0,215,187,402,401,402xm290,-521v0,-146,129,-273,273,-273r205,0r0,96r-205,0v-55,0,-82,59,-82,177v0,119,27,178,82,178r205,0r0,96r-205,0v-145,5,-273,-129,-273,-274","w":1126},"\u00ae":{"d":"563,-1041v278,0,521,241,521,520v0,280,-243,521,-521,521v-278,0,-520,-242,-520,-521v0,-279,242,-520,520,-520xm503,-568v67,3,130,-5,130,-65v0,-60,-63,-69,-130,-65r0,130xm551,-794v137,-2,272,46,273,161v0,76,-51,125,-152,147r195,228v65,-75,97,-162,97,-263v0,-214,-186,-401,-401,-401v-214,0,-401,187,-401,401v0,215,187,402,401,402v116,0,214,-43,294,-128r-197,0r-157,-188r0,188r-191,0r0,-547r239,0","w":1126},"\u00b0":{"d":"222,-1724v73,0,136,63,136,137v0,73,-63,136,-136,136v-74,0,-137,-63,-137,-136v0,-74,63,-137,137,-137xm154,-1587v0,35,33,68,68,68v45,0,68,-23,68,-68v1,-38,-30,-68,-68,-68v-35,0,-68,32,-68,68","w":444},"\u00b1":{"d":"802,-649r-239,0r0,239r-239,0r0,-239r-239,0r0,-238r239,0r0,-239r239,0r0,239r239,0r0,238xm802,-2r-717,0r0,-239r717,0r0,239","w":887},"\u00b4":{"d":"631,-1485r-512,34r-34,-51r546,-153r0,170","w":717},"\u00b6":{"d":"43,-853v0,-291,229,-512,512,-512r833,0r0,341r-128,0r0,1024r-256,0r0,-1024r-193,0r0,1024r-256,0r0,-341v-280,1,-512,-222,-512,-512","w":1473},"\u00bf":{"d":"981,-1024v90,0,171,81,171,171v0,91,-80,170,-171,170v-91,0,-170,-79,-170,-170v0,-91,79,-171,170,-171xm521,-60v0,96,104,161,204,161r427,0r0,239v-309,-3,-650,21,-864,-75v-162,-73,-245,-178,-245,-325v0,-148,82,-257,245,-326v139,-60,319,-80,523,-75r0,-102r341,0r0,341r-427,0v-100,-3,-204,66,-204,162","w":1237},"\u00c0":{"d":"700,-1502r-34,51r-512,-34r0,-170xm1280,0r-461,0r-60,-171r-546,0r-59,171r-238,0r410,-1176v32,-101,138,-190,268,-189v122,0,239,86,273,182xm676,-410r-190,-541r-189,541r379,0"},"\u00c1":{"d":"1041,-1485r-512,34r-34,-51r546,-153r0,170xm1280,0r-461,0r-60,-171r-546,0r-59,171r-238,0r410,-1176v32,-101,138,-190,268,-189v122,0,239,86,273,182xm676,-410r-190,-541r-189,541r379,0"},"\u00c2":{"d":"896,-1451r-171,0r-128,-136r-128,136r-170,0r170,-204r256,0xm1280,0r-461,0r-60,-171r-546,0r-59,171r-238,0r410,-1176v32,-100,140,-190,268,-189v122,0,239,86,273,182xm676,-410r-190,-541r-189,541r379,0"},"\u00c3":{"d":"495,-1707v57,0,148,86,205,86v83,0,151,-29,205,-86r0,171v-54,57,-122,85,-205,85v-56,0,-149,-85,-205,-85v-80,0,-148,28,-205,85r0,-170v56,-57,124,-86,205,-86xm1280,0r-461,0r-60,-171r-546,0r-59,171r-238,0r410,-1176v42,-154,276,-252,434,-138v50,36,88,77,107,131xm676,-410r-190,-541r-189,541r379,0"},"\u00c4":{"d":"768,-1690v64,0,119,56,119,120v0,64,-56,119,-119,119v-64,0,-119,-56,-119,-119v0,-65,55,-120,119,-120xm427,-1690v64,0,119,56,119,120v0,64,-56,119,-119,119v-65,0,-120,-55,-120,-119v0,-65,55,-120,120,-120xm1280,0r-461,0r-60,-171r-546,0r-59,171r-238,0r410,-1176v32,-100,140,-190,268,-189v122,0,239,86,273,182xm676,-410r-190,-541r-189,541r379,0"},"\u00c5":{"d":"594,-1724v73,0,136,63,136,137v0,73,-63,136,-136,136v-74,0,-137,-63,-137,-136v0,-74,63,-137,137,-137xm1280,0r-461,0r-60,-171r-546,0r-59,171r-238,0r410,-1176v32,-100,140,-190,268,-189v122,0,239,86,273,182xm526,-1587v0,35,33,68,68,68v45,0,68,-23,68,-68v1,-38,-30,-68,-68,-68v-35,0,-68,32,-68,68xm676,-410r-190,-541r-189,541r379,0"},"\u00c6":{"d":"985,0v-118,3,-260,-64,-256,-171r-487,0r-105,171r-238,0r731,-1176v58,-97,181,-189,321,-189r631,0r0,239r-358,0v-46,0,-69,17,-69,51r0,273r427,0r0,239r-427,0r0,273v0,34,23,51,69,51r358,0r0,239r-597,0xm729,-410r0,-541r-338,541r338,0","w":1667},"\u00c8":{"d":"700,-1502r-34,51r-512,-34r0,-170xm85,-1195v-4,-105,139,-170,256,-170r768,0r0,239r-529,0v-45,0,-68,17,-68,51r0,273r597,0r0,239r-597,0r0,273v0,34,23,51,68,51r529,0r0,239r-768,0v-118,3,-256,-64,-256,-171r0,-1024"},"\u00c9":{"d":"1041,-1485r-512,34r-34,-51r546,-153r0,170xm85,-1195v-4,-105,139,-170,256,-170r768,0r0,239r-529,0v-45,0,-68,17,-68,51r0,273r597,0r0,239r-597,0r0,273v0,34,23,51,68,51r529,0r0,239r-768,0v-118,3,-256,-64,-256,-171r0,-1024"},"\u00ca":{"d":"896,-1451r-171,0r-128,-136r-128,136r-170,0r170,-204r256,0xm85,-1195v-4,-105,139,-170,256,-170r768,0r0,239r-529,0v-45,0,-68,17,-68,51r0,273r597,0r0,239r-597,0r0,273v0,34,23,51,68,51r529,0r0,239r-768,0v-118,3,-256,-64,-256,-171r0,-1024"},"\u00cb":{"d":"768,-1690v64,0,119,56,119,120v0,64,-56,119,-119,119v-64,0,-119,-56,-119,-119v0,-65,55,-120,119,-120xm427,-1690v64,0,119,56,119,120v0,64,-56,119,-119,119v-65,0,-120,-55,-120,-119v0,-65,55,-120,120,-120xm85,-1195v-4,-105,139,-170,256,-170r768,0r0,239r-529,0v-45,0,-68,17,-68,51r0,273r597,0r0,239r-597,0r0,273v0,34,23,51,68,51r529,0r0,239r-768,0v-118,3,-256,-64,-256,-171r0,-1024"},"\u00cc":{"d":"572,-1502r-34,51r-512,-34r0,-170xm512,0r-427,0r0,-1365r427,0r0,1365","w":597},"\u00cd":{"d":"572,-1485r-512,34r-34,-51r546,-153r0,170xm512,0r-427,0r0,-1365r427,0r0,1365","w":597},"\u00ce":{"d":"597,-1451r-170,0r-128,-136r-128,136r-171,0r171,-204r256,0xm512,0r-427,0r0,-1365r427,0r0,1365","w":597},"\u00cf":{"d":"469,-1690v65,0,120,55,120,120v0,64,-56,119,-120,119v-64,0,-119,-56,-119,-119v0,-65,55,-120,119,-120xm128,-1690v64,0,119,56,119,120v0,64,-56,119,-119,119v-64,0,-119,-56,-119,-119v0,-65,55,-120,119,-120xm512,0r-427,0r0,-1365r427,0r0,1365","w":597},"\u00d1":{"d":"580,-1707v57,0,148,86,205,86v83,0,152,-29,205,-86r0,171v-53,57,-121,85,-205,85v-56,0,-149,-85,-205,-85v-80,0,-148,28,-205,85r0,-170v56,-57,124,-86,205,-86xm85,-1128v-5,-132,125,-237,255,-237v83,0,145,25,186,76r481,608r0,-684r273,0r0,1128v4,131,-125,237,-256,237v-81,0,-143,-26,-184,-77r-482,-607r0,684r-273,0r0,-1128","w":1365},"\u00d2":{"d":"828,-1502r-34,51r-512,-34r0,-170xm725,-1365v365,0,683,318,683,682v0,365,-317,683,-683,683v-364,0,-682,-319,-682,-683v0,-365,318,-682,682,-682xm905,-406v31,-104,31,-449,0,-553v-33,-111,-91,-167,-180,-167v-88,0,-146,56,-179,167v-31,104,-31,450,0,553v33,111,91,167,179,167v89,0,147,-56,180,-167","w":1451},"\u00d3":{"d":"1169,-1485r-512,34r-34,-51r546,-153r0,170xm725,-1365v365,0,683,318,683,682v0,365,-317,683,-683,683v-364,0,-682,-319,-682,-683v0,-365,318,-682,682,-682xm905,-406v31,-104,31,-449,0,-553v-33,-111,-91,-167,-180,-167v-88,0,-146,56,-179,167v-31,104,-31,450,0,553v33,111,91,167,179,167v89,0,147,-56,180,-167","w":1451},"\u00d4":{"d":"1024,-1451r-171,0r-128,-136r-128,136r-170,0r170,-204r256,0xm725,-1365v365,0,683,318,683,682v0,365,-317,683,-683,683v-364,0,-682,-319,-682,-683v0,-365,318,-682,682,-682xm905,-406v31,-104,31,-449,0,-553v-33,-111,-91,-167,-180,-167v-88,0,-146,56,-179,167v-31,104,-31,450,0,553v33,111,91,167,179,167v89,0,147,-56,180,-167","w":1451},"\u00d5":{"d":"623,-1707v57,0,148,86,205,86v83,0,151,-29,205,-86r0,171v-54,57,-122,85,-205,85v-56,0,-149,-85,-205,-85v-80,0,-148,28,-205,85r0,-170v56,-57,124,-86,205,-86xm725,-1365v365,0,683,318,683,682v0,365,-317,683,-683,683v-364,0,-682,-319,-682,-683v0,-365,318,-682,682,-682xm905,-406v31,-104,31,-449,0,-553v-33,-111,-91,-167,-180,-167v-88,0,-146,56,-179,167v-31,104,-31,450,0,553v33,111,91,167,179,167v89,0,147,-56,180,-167","w":1451},"\u00d6":{"d":"896,-1690v64,0,119,56,119,120v0,64,-56,119,-119,119v-64,0,-119,-56,-119,-119v0,-65,55,-120,119,-120xm555,-1690v64,0,119,56,119,120v0,64,-56,119,-119,119v-65,0,-120,-55,-120,-119v0,-65,55,-120,120,-120xm725,-1365v365,0,683,318,683,682v0,365,-317,683,-683,683v-364,0,-682,-319,-682,-683v0,-365,318,-682,682,-682xm905,-406v31,-104,31,-449,0,-553v-33,-111,-91,-167,-180,-167v-88,0,-146,56,-179,167v-31,104,-31,450,0,553v33,111,91,167,179,167v89,0,147,-56,180,-167","w":1451},"\u00d8":{"d":"43,-683v0,-365,318,-682,682,-682v151,0,287,45,408,136r147,-136r171,170r-152,142v73,113,109,236,109,370v0,365,-317,683,-683,683v-151,0,-287,-46,-408,-137r-146,137r-171,-171r152,-141v-73,-113,-109,-236,-109,-371xm891,-1002v-33,-83,-88,-124,-166,-124v-136,0,-204,138,-204,414r0,55xm930,-654r0,-54r-370,344v33,83,88,125,165,125v137,0,205,-138,205,-415","w":1451},"\u00d9":{"d":"870,-1502r-34,51r-512,-34r0,-170xm768,0v-365,0,-683,-318,-683,-683r0,-682r478,0r0,682v0,123,9,215,26,277v31,111,91,167,179,167v88,0,148,-56,179,-167v17,-62,26,-154,26,-277r0,-682r478,0r0,682v10,365,-317,683,-683,683","w":1536},"\u00da":{"d":"1212,-1485r-512,34r-34,-51r546,-153r0,170xm768,0v-365,0,-683,-318,-683,-683r0,-682r478,0r0,682v0,123,9,215,26,277v31,111,91,167,179,167v88,0,148,-56,179,-167v17,-62,26,-154,26,-277r0,-682r478,0r0,682v10,365,-317,683,-683,683","w":1536},"\u00db":{"d":"1067,-1451r-171,0r-128,-136r-128,136r-171,0r171,-204r256,0xm768,0v-365,0,-683,-318,-683,-683r0,-682r478,0r0,682v0,123,9,215,26,277v31,111,91,167,179,167v88,0,148,-56,179,-167v17,-62,26,-154,26,-277r0,-682r478,0r0,682v10,365,-317,683,-683,683","w":1536},"\u00dc":{"d":"939,-1690v64,0,119,56,119,120v0,64,-56,119,-119,119v-65,0,-120,-55,-120,-119v0,-65,55,-120,120,-120xm597,-1690v65,0,120,55,120,120v0,64,-56,119,-120,119v-64,0,-119,-56,-119,-119v0,-65,55,-120,119,-120xm768,0v-365,0,-683,-318,-683,-683r0,-682r478,0r0,682v0,123,9,215,26,277v31,111,91,167,179,167v88,0,148,-56,179,-167v17,-62,26,-154,26,-277r0,-682r478,0r0,682v10,365,-317,683,-683,683","w":1536},"\u00e0":{"d":"580,-1229r-34,51r-512,-34r0,-170xm1024,0r-369,0r-47,-137r-437,0r-48,137r-190,0r328,-940v35,-126,216,-201,346,-111v41,28,71,61,86,106xm541,-328r-152,-433r-152,433r304,0","w":956},"\u00e1":{"d":"922,-1212r-512,34r-35,-51r547,-153r0,170xm1024,0r-369,0r-47,-137r-437,0r-48,137r-190,0r328,-940v35,-126,216,-201,346,-111v41,28,71,61,86,106xm541,-328r-152,-433r-152,433r304,0","w":956},"\u00e2":{"d":"777,-1178r-171,0r-128,-136r-128,136r-171,0r171,-204r256,0xm1024,0r-369,0r-47,-137r-437,0r-48,137r-190,0r328,-940v35,-126,216,-201,346,-111v41,28,71,61,86,106xm541,-328r-152,-433r-152,433r304,0","w":956},"\u00e3":{"d":"375,-1434v56,0,150,86,205,86v83,0,152,-29,205,-86r0,171v-53,57,-121,85,-205,85v-55,0,-150,-85,-205,-85v-79,0,-147,28,-204,85r0,-170v55,-57,123,-86,204,-86xm1024,0r-369,0r-47,-137r-437,0r-48,137r-190,0r328,-940v35,-126,216,-201,346,-111v41,28,71,61,86,106xm541,-328r-152,-433r-152,433r304,0","w":956},"\u00e4":{"d":"649,-1417v64,0,119,56,119,120v0,64,-56,119,-119,119v-65,0,-120,-55,-120,-119v0,-65,55,-120,120,-120xm307,-1417v65,0,120,55,120,120v0,64,-56,119,-120,119v-64,0,-119,-56,-119,-119v0,-65,55,-120,119,-120xm1024,0r-369,0r-47,-137r-437,0r-48,137r-190,0r328,-940v35,-126,216,-201,346,-111v41,28,71,61,86,106xm541,-328r-152,-433r-152,433r304,0","w":956},"\u00e5":{"d":"474,-1451v72,0,137,64,137,137v0,73,-63,136,-137,136v-73,0,-136,-63,-136,-136v0,-73,65,-137,136,-137xm1024,0r-369,0r-47,-137r-437,0r-48,137r-190,0r328,-940v35,-126,216,-201,346,-111v41,28,71,61,86,106xm406,-1314v0,35,33,68,68,68v46,0,69,-23,69,-68v1,-38,-31,-68,-69,-68v-35,0,-68,33,-68,68xm541,-328r-152,-433r-152,433r304,0","w":956},"\u00e6":{"d":"785,0v-94,2,-208,-52,-205,-137r-389,0r-85,137r-190,0r584,-940v45,-73,147,-152,258,-152r505,0r0,191r-287,0v-36,0,-54,14,-54,41r0,218r341,0r0,191r-341,0r0,219v0,27,18,41,54,41r287,0r0,191r-478,0xm580,-328r0,-433r-271,433r271,0","w":1331},"\u00e8":{"d":"580,-1229r-34,51r-512,-34r0,-170xm68,-956v-3,-83,112,-136,205,-136r614,0r0,191r-423,0v-36,0,-54,14,-54,41r0,218r477,0r0,191r-477,0r0,219v0,27,18,41,54,41r423,0r0,191r-614,0v-94,3,-205,-55,-205,-137r0,-819","w":956},"\u00e9":{"d":"922,-1212r-512,34r-35,-51r547,-153r0,170xm68,-956v-3,-83,112,-136,205,-136r614,0r0,191r-423,0v-36,0,-54,14,-54,41r0,218r477,0r0,191r-477,0r0,219v0,27,18,41,54,41r423,0r0,191r-614,0v-94,3,-205,-55,-205,-137r0,-819","w":956},"\u00ea":{"d":"777,-1178r-171,0r-128,-136r-128,136r-171,0r171,-204r256,0xm68,-956v-3,-83,112,-136,205,-136r614,0r0,191r-423,0v-36,0,-54,14,-54,41r0,218r477,0r0,191r-477,0r0,219v0,27,18,41,54,41r423,0r0,191r-614,0v-94,3,-205,-55,-205,-137r0,-819","w":956},"\u00eb":{"d":"649,-1417v64,0,119,56,119,120v0,64,-56,119,-119,119v-65,0,-120,-55,-120,-119v0,-65,55,-120,120,-120xm307,-1417v65,0,120,55,120,120v0,64,-56,119,-120,119v-64,0,-119,-56,-119,-119v0,-65,55,-120,119,-120xm68,-956v-3,-83,112,-136,205,-136r614,0r0,191r-423,0v-36,0,-54,14,-54,41r0,218r477,0r0,191r-477,0r0,219v0,27,18,41,54,41r423,0r0,191r-614,0v-94,3,-205,-55,-205,-137r0,-819","w":956},"\u00ec":{"d":"512,-1229r-34,51r-510,-34r0,-170xm410,0r-342,0r0,-1092r342,0r0,1092","w":478},"\u00ed":{"d":"512,-1212r-512,34r-32,-51r544,-153r0,170xm410,0r-342,0r0,-1092r342,0r0,1092","w":478},"\u00ee":{"d":"538,-1178r-171,0r-128,-136r-128,136r-169,0r169,-204r256,0xm410,0r-342,0r0,-1092r342,0r0,1092","w":478},"\u00ef":{"d":"410,-1417v64,0,119,56,119,120v0,64,-56,119,-119,119v-65,0,-120,-55,-120,-119v0,-65,55,-120,120,-120xm68,-1417v65,0,120,55,120,120v0,64,-56,119,-120,119v-62,0,-117,-54,-117,-119v0,-66,54,-120,117,-120xm410,0r-342,0r0,-1092r342,0r0,1092","w":478},"\u00f1":{"d":"444,-1434v55,0,149,86,205,86v83,0,151,-29,204,-86r0,171v-53,57,-121,85,-204,85v-55,0,-150,-85,-205,-85v-80,0,-148,28,-205,85r0,-170v56,-57,124,-86,205,-86xm68,-903v-3,-105,100,-189,203,-189v67,0,116,20,149,61r386,487r0,-548r218,0r0,903v4,103,-101,189,-205,189v-65,0,-114,-20,-147,-61r-385,-487r0,548r-219,0r0,-903","w":1092},"\u00f2":{"d":"674,-1229r-34,51r-512,-34r0,-170xm572,-1092v290,0,546,256,546,546v0,291,-254,546,-546,546v-293,0,-546,-253,-546,-546v0,-292,255,-546,546,-546xm715,-326v25,-86,26,-354,0,-440v-26,-89,-72,-135,-143,-135v-72,0,-118,45,-144,135v-25,88,-25,352,0,440v26,90,72,135,144,135v71,0,116,-46,143,-135","w":1143},"\u00f3":{"d":"1015,-1212r-512,34r-34,-51r546,-153r0,170xm572,-1092v290,0,546,256,546,546v0,291,-254,546,-546,546v-293,0,-546,-253,-546,-546v0,-292,255,-546,546,-546xm715,-326v25,-86,26,-354,0,-440v-26,-89,-72,-135,-143,-135v-72,0,-118,45,-144,135v-25,88,-25,352,0,440v26,90,72,135,144,135v71,0,116,-46,143,-135","w":1143},"\u00f4":{"d":"870,-1178r-170,0r-128,-136r-128,136r-171,0r171,-204r256,0xm572,-1092v290,0,546,256,546,546v0,291,-254,546,-546,546v-293,0,-546,-253,-546,-546v0,-292,255,-546,546,-546xm715,-326v25,-86,26,-354,0,-440v-26,-89,-72,-135,-143,-135v-72,0,-118,45,-144,135v-25,88,-25,352,0,440v26,90,72,135,144,135v71,0,116,-46,143,-135","w":1143},"\u00f5":{"d":"469,-1434v57,0,148,86,205,86v83,0,152,-29,205,-86r0,171v-53,57,-121,85,-205,85v-56,0,-149,-85,-205,-85v-79,0,-147,28,-204,85r0,-170v55,-57,123,-86,204,-86xm572,-1092v290,0,546,256,546,546v0,291,-254,546,-546,546v-293,0,-546,-253,-546,-546v0,-292,255,-546,546,-546xm715,-326v25,-86,26,-354,0,-440v-26,-89,-72,-135,-143,-135v-72,0,-118,45,-144,135v-25,88,-25,352,0,440v26,90,72,135,144,135v71,0,116,-46,143,-135","w":1143},"\u00f6":{"d":"742,-1417v65,0,120,55,120,120v0,64,-56,119,-120,119v-64,0,-119,-56,-119,-119v0,-65,55,-120,119,-120xm401,-1417v65,0,120,55,120,120v0,64,-56,119,-120,119v-64,0,-119,-56,-119,-119v0,-65,55,-120,119,-120xm572,-1092v290,0,546,256,546,546v0,291,-254,546,-546,546v-293,0,-546,-253,-546,-546v0,-292,255,-546,546,-546xm715,-326v25,-86,26,-354,0,-440v-26,-89,-72,-135,-143,-135v-72,0,-118,45,-144,135v-25,88,-25,352,0,440v26,90,72,135,144,135v71,0,116,-46,143,-135","w":1143},"\u00f7":{"d":"444,-1126v64,0,119,56,119,119v0,65,-55,120,-119,120v-65,0,-120,-55,-120,-120v0,-64,56,-119,120,-119xm802,-563r-717,0r0,-239r717,0r0,239xm444,-478v64,0,119,56,119,120v0,64,-56,119,-119,119v-65,0,-120,-55,-120,-119v0,-65,55,-120,120,-120","w":887},"\u00f8":{"d":"34,-546v0,-292,255,-546,546,-546v121,0,229,36,326,109r118,-109r137,136r-122,113v58,90,87,189,87,297v0,293,-253,546,-546,546v-121,0,-229,-36,-326,-109r-117,109r-137,-137r121,-112v-58,-90,-87,-189,-87,-297xm713,-802v-26,-66,-70,-99,-133,-99v-109,0,-164,110,-164,331r0,44xm744,-522r0,-45r-297,277v26,66,70,99,133,99v109,0,164,-110,164,-331","w":1161},"\u00f9":{"d":"717,-1229r-34,51r-512,-34r0,-170xm614,0v-293,0,-546,-253,-546,-546r0,-546r383,0r0,546v0,97,7,170,20,220v24,90,72,135,143,135v72,0,120,-45,144,-135v13,-50,20,-123,20,-220r0,-546r383,0r0,546v8,291,-254,546,-547,546","w":1229},"\u00fa":{"d":"1058,-1212r-512,34r-34,-51r546,-153r0,170xm614,0v-293,0,-546,-253,-546,-546r0,-546r383,0r0,546v0,97,7,170,20,220v24,90,72,135,143,135v72,0,120,-45,144,-135v13,-50,20,-123,20,-220r0,-546r383,0r0,546v8,291,-254,546,-547,546","w":1229},"\u00fb":{"d":"913,-1178r-171,0r-128,-136r-128,136r-170,0r170,-204r256,0xm614,0v-293,0,-546,-253,-546,-546r0,-546r383,0r0,546v0,97,7,170,20,220v24,90,72,135,143,135v72,0,120,-45,144,-135v13,-50,20,-123,20,-220r0,-546r383,0r0,546v8,291,-254,546,-547,546","w":1229},"\u00fc":{"d":"785,-1417v65,0,120,55,120,120v0,64,-56,119,-120,119v-64,0,-119,-56,-119,-119v0,-65,55,-120,119,-120xm444,-1417v64,0,119,56,119,120v0,64,-56,119,-119,119v-65,0,-120,-55,-120,-119v0,-65,55,-120,120,-120xm614,0v-293,0,-546,-253,-546,-546r0,-546r383,0r0,546v0,97,7,170,20,220v24,90,72,135,143,135v72,0,120,-45,144,-135v13,-50,20,-123,20,-220r0,-546r383,0r0,546v8,291,-254,546,-547,546","w":1229},"\u00ff":{"d":"538,-1417v64,0,119,56,119,120v0,64,-56,119,-119,119v-65,0,-120,-55,-120,-119v0,-65,55,-120,120,-120xm196,-1417v65,0,120,55,120,120v0,64,-56,119,-120,119v-64,0,-119,-56,-119,-119v0,-65,55,-120,119,-120xm845,-1092r-307,587r0,505r-342,0r0,-505r-305,-587r380,0r181,375r202,-375r191,0","w":734},"\u0160":{"d":"896,-1655r-171,204r-256,0r-170,-204r170,0r128,136r128,-136r171,0xm614,-1126v-39,-1,-69,39,-68,78v0,26,16,48,45,70v142,111,349,236,450,369v173,228,-3,609,-273,609r-683,0r0,-239r495,0v41,2,71,-42,70,-82v0,-24,-15,-54,-54,-80r-148,-98r-204,-141v-106,-79,-159,-185,-159,-319v0,-207,143,-406,342,-406r682,0r0,239r-495,0"},"\u0161":{"d":"777,-1382r-171,204r-256,0r-171,-204r171,0r128,136r128,-136r171,0xm68,-768v0,-165,113,-324,273,-324r546,0r0,191r-395,0v-37,0,-55,21,-55,63v0,19,12,38,36,56v112,88,281,190,360,294v138,182,0,488,-219,488r-546,0r0,-191r396,0v38,0,57,-22,57,-65v0,-66,-112,-107,-163,-143r-163,-113v-85,-64,-127,-149,-127,-256","w":956},"\u00d7":{"d":"761,-514r-169,169r-169,-169r-169,169r-169,-169r169,-169r-169,-169r169,-169r169,169r169,-169r169,169r-169,169","w":847},"\u00dd":{"d":"913,-1485r-512,34r-34,-51r546,-153r0,170xm1067,-1365r-384,734r0,631r-427,0r0,-631r-382,-734r476,0r227,469r251,-469r239,0","w":939},"\u00fd":{"d":"811,-1212r-512,34r-34,-51r546,-153r0,170xm845,-1092r-307,587r0,505r-342,0r0,-505r-305,-587r380,0r181,375r202,-375r191,0","w":734}}});
